1.732337348589169e-05
1.6016844463022625e-05
1.4670281391746147e-05
1.3286215320468293e-05
1.1867315389613238e-05
1.0416383773059301e-05
8.936350160674232e-06
7.430265790378528e-06
5.9012970395724415e-06
4.352718587150245e-06
2.7879061586955577e-06
1.2103288688212984e-06
-3.7645882405576e-07
-1.968825533890373e-06
-3.5630717162471724e-06
-5.155438771450617e-06
-6.742118461294872e-06
-8.319262617775275e-06
-9.882993121185745e-06
-1.1429412123839568e-05
-1.295461249464294e-05
-1.4454688458784226e-05
-1.592574640587836e-05
-1.7363915839065568e-05
-1.8765360436766307e-05
-2.012628919808801e-05
-2.1442967642222936e-05
-2.271172903161195e-05
-2.3928985588149473e-05
-2.5091239671287273e-05
-2.619509488656383e-05
-2.7237267092826236e-05
-2.821459527625054e-05
-2.912405225917778e-05
-2.9962755211794562e-05
-3.072797593477657e-05
-3.1417150881199496e-05
-3.202789088629477e-05
-3.2557990573991126e-05
-3.3005437409638444e-05
-3.3368420368854766e-05
-3.364533819307099e-05
-3.3834807203075996e-05
-3.393566864267179e-05
-3.394699552545516e-05
-3.3868098958721224e-05
-3.3698533919562494e-05
-3.343810445938193e-05
-3.308686831427681e-05
-3.264514090006151e-05
-3.2113498672076325e-05
-3.149278183139935e-05
-3.078409636059328e-05
-2.9988815373725218e-05
-2.910857976704049e-05
-2.814529815839985e-05
-2.7101146105345253e-05
-2.5978564593487597e-05
-2.4780257788776003e-05
-2.350919004910477e-05
-2.2168582192676052e-05
-2.076190702249233e-05
-1.929288410837599e-05
-1.7765473829918932e-05
-1.6183870685827077e-05
-1.4552495877157128e-05
-1.2875989174023432e-05
-1.1159200077392084e-05
-9.40717828964838e-06
-7.625163509664302e-06
-5.8185745701098385e-06
-3.992997936775383e-06
-2.1541755916276897e-06
-3.0799232328789576e-07
1.5395375494983433e-06
3.3822839939461397e-06
5.21401558963223e-06
7.0284143342027755e-06
8.819090895690898e-06
1.0579600277131355e-05
1.2303457857587695e-05
1.398415577225145e-05
1.561517959285675e-05
1.719002526836517e-05
1.8702216284637923e-05
2.0145321000710057e-05
2.1512970118238017e-05
2.2798874239789625e-05
2.3996841470822714e-05
2.5100795019496007e-05
2.6104790747877177e-05
2.7003034627626567e-05
2.7789900052896777e-05
2.845994496294625e-05
2.9007928726865014e-05
2.9428828742822977e-05
2.97178567044019e-05
2.9870474486840193e-05
2.9882409606422314e-05
2.974967020677777e-05
2.9468559526510756e-05
2.9035689803372465e-05
2.844799557110605e-05
2.7702746306135557e-05
2.6797558382445392e-05
2.573040629428772e-05
2.4499633107777403e-05
2.3103960103967875e-05
2.1542495577659057e-05
1.9814742757960213e-05
1.7920606818504185e-05
1.5860400947210136e-05
1.3634851447567844e-05
1.1245101845623985e-05
8.6927159791191e-06
5.979680047614721e-06
3.108403604893287e-06
8.171947746008351e-08
-3.0971174044135443e-06
-6.424432274000307e-06
-9.896133901921785e-06
-1.3507719081818519e-05
-1.7254278230395498e-05
-2.1130502101500262e-05
-2.5130689610953718e-05
-2.9248756765940815e-05
-3.347824668979867e-05
-3.781234073007266e-05
-4.224387063475873e-05
-4.6765331778660565e-05
-5.136889741886809e-05
-5.604643395540057e-05
-6.0789517170188846e-05
-6.558944941467065e-05
-7.04372777134837e-05
-7.532381274894003e-05
-8.023964868828279e-05
-8.517518381306606e-05
-9.012064190743328e-05
-9.506609435960169e-05
-0.00010000148292844026
-0.00010491664312476363
-0.00010980132815474184
-0.00011464523337077832
-0.0001194380211732178
-0.00012416934630443414
-0.0001288288814751302
-0.00013340634326111005
-0.0001378915182073768
-0.00014227428907510485
-0.00014654466116593645
-0.00015069278865706152
-0.0001547090008797544
-0.0001585838284733789
-0.0001623080293464217
-0.00016587261437579545
-0.00016926887277554385
-0.00017248839706612037
-0.0001755231075756454
-0.00017836527640496615
-0.00018100755078891584
-0.0001834429757869619
-0.00018566501623737153
-0.00018766757791016406
-0.00018944502779543403
-0.0001909922134651179
-0.00019230448144795154
-0.0001933776945592036
-0.00019420824812878688
-0.0001947930850735328
-0.00019512970976175395
-0.0001952162006207343
-0.00019505122144043528
-0.00019463403132952725
-0.0001939644932827983
-0.00019304308132208996
-0.0001918708861761353
-0.0001904496194680064
-0.0001887816163823647
-0.00018686983678825603
-0.0001847178647968926
-0.00018232990673760276
-0.00017971078753901192
-0.00017686594550641324
-0.00017380142549030901
-0.00017052387044512666
-0.00016704051138122185
-0.00016335915571741942
-0.00015948817404547232
-0.0001554364853220319
-0.00015121354050785774
-0.00014682930467821155
-0.00014229423763249016
-0.00013761927303532993
-0.00013281579612546015
-0.00012789562003265572
-0.0001228709607471178
-0.00011775441078949823
-0.00011255891163365587
-0.00010729772493792058
-0.00010198440264432861
-9.663275600876222e-05
-9.125682362837752e-05
-8.587083853591843e-05
-8.048919443368928e-05
-7.51264111428822e-05
-6.97970993467941e-05
-6.451592470910592e-05
-5.9297571450828286e-05
-5.415670547183615e-05
-4.910793710494148e-05
-4.4165783592380715e-05
-3.934463137621085e-05
-3.4658698295607745e-05
-3.0121995785249273e-05
-2.5748291169996688e-05
-2.1551070151858702e-05
-1.7543499585738705e-05
-1.3738390640796843e-05
-1.0148162444278264e-05
-6.784806304503047e-06
-3.659850609244039e-06
-7.843264950628061e-07
1.83126561778863e-06
4.176988531452035e-06
6.24349972553979e-06
8.022081670877752e-06
9.504670913519908e-06
1.0683885842814901e-05
1.1553053059708455e-05
1.2106232264120577e-05
1.2338239583113254e-05
1.2244669264672888e-05
1.1821913665262884e-05
1.1067181462844702e-05
9.978514030820228e-06
8.554799912307829e-06
6.7957873383013445e-06
4.702094737611447e-06
2.2752191909754484e-06
-4.824572135796867e-07
-3.567663162233975e-06
-6.97623606684072e-06
-1.0703122214391575e-05
-1.4742379137262366e-05
-1.9087180221679176e-05
-2.3729821566430778e-05
-2.866173109829348e-05
-3.387347994508381e-05
-3.935479606155605e-05
-4.509458009771576e-05
-5.108092349333793e-05
-5.730112877679217e-05
-6.374173204048163e-05
-7.038852755950374e-05
-7.722659451441793e-05
-8.424032577334929e-05
-9.14134586830445e-05
-9.872910781296003e-05
-0.00010616979959102243
-0.00011371750876433033
-0.00012135369661285148
-0.00012905935083905003
-0.00013681502705142215
-0.000144600891755107
-0.00015239676675810884
-0.00016018217489721152
-0.0001679363869834144
-0.00017563846986266848
-0.00018326733548388154
-0.000190801790862549
-0.0001982205888250458
-0.0002055024794155066
-0.0002126262618444101
-0.00021957083685542403
-0.00022631525938481245
-0.00023283879138572604
-0.00023912095468803048
-0.0002451415837629621
-0.0002508808782608502
-0.0002563194551894084
-0.0002614384005997011
-0.00026621932064680294
-0.0002706443918924262
-0.0002746964107173747
-0.00027835884171261154
-0.00028161586491897827
-0.00028445242178720486
-0.0002868542597317766
-0.000288807975154495
-0.0002903010548161573
-0.0002913219154377108
-0.0002918599414154843
-0.0002919055205386634
-0.0002914500776010586
-0.00029048610580339747
-0.0002890071958468596
-0.0002870080626233428
-0.00028448456941299977
-0.0002814337495049203
-0.0002778538251624029
-0.0002737442238601032
-0.00026910559172640865
-0.00026393980413068243
-0.0002582499733615179
-0.00025204045334884206
-0.0002453168413895782
-0.00023808597684362218
-0.00023035593677407033
-0.00022213602851295955
-0.00021343677914121694
-0.00020426992187904213
-0.00019464837939056729
-0.00018458624401430118
-0.0001740987549385921
-0.00016320227234907384
-0.00015191424858280835
-0.000140253196331576
-0.00012823865394443826
-0.00011589114788737492
-0.00010323215242533695
-9.028404659955664e-05
-7.707006858030995e-05
-6.361426748257097e-05
-4.9941452739079335e-05
-3.607714113226236e-05
-2.2047501593177144e-05
-7.879297882171358e-06
6.4001707277588114e-06
2.0763130637850734e-05
3.5181396847860686e-05
4.962643747938362e-05
6.406943975460662e-05
7.848137728197761e-05
9.28330784956649e-05
0.00010709529609142646
0.00012123877729759027
0.0001352343348162941
0.00014905291826697209
0.00016266568596126654
0.00017604407683617047
0.00018915988237021105
0.0002019853183059167
0.0002144930960006606
0.00022665649322725718
0.00023844942424539918
0.0002498465089651811
0.00026082314102454364
0.00027135555460353034
0.00028142088979971427
0.00029099725639110754
0.00030006379581522876
0.00030860074119584197
0.0003165894752521333
0.0003240125859287967
0.0003308539195896364
0.00033709863162183673
0.00034273323430303933
0.00034774564178874145
0.00035212521208330497
0.000355862785864046
0.0003589507220344109
0.00036138292988915807
0.00036315489778171694
0.000364263718191493
0.00036470810909679897
0.00036448843156729703
0.00036360670349834583
0.00036206660941840184
0.00035987350630963585
0.0003570344253911658
0.0003535580698237408
0.00034945480830435175
0.00034473666452901884
0.00033941730251194166
0.0003335120077592445
0.00032703766430568774
0.0003200127276329025
0.0003124571934979937
0.00030439256271159163
0.0002958418019147069
0.0002868293004139834
0.0002773808231451038
0.00026752345984421325
0.00025728557051719534
0.0002466967273064969
0.0002357876528648962
0.00022459015535510052
0.00021313706020338965
0.00020146213874456888
0.00018960003390431154
0.0001775861830735117
0.00016545673833748308
0.00015324848423074302
0.00014099875319567554
0.00012874533893053537
0.00011652640781906122
0.00010438040864031291
9.234598076333299e-05
8.046186103669193e-05
6.87667895880314e-05
5.72994147532603e-05
4.6098197359108214e-05
3.520131458628663e-05
2.464656364351464e-05
1.4471265485153837e-05
4.7121688071263184e-06
-4.594645442847368e-06
-1.3413858803815868e-05
-2.1711009051881246e-05
-2.9452582725433362e-05
-3.660610618948671e-05
-4.314023500477585e-05
-4.9024841369341565e-05
-5.423109940301543e-05
-5.8731568048457824e-05
-6.250027136622876e-05
-6.551277600579253e-05
-6.774626563930276e-05
-6.917961215057834e-05
-6.979344337774796e-05
-6.95702072146832e-05
-6.849423188349203e-05
-6.655178219803026e-05
-6.373111164656591e-05
-6.002251013040516e-05
-5.541834720442386e-05
-4.991311067504304e-05
-4.350344042121463e-05
-3.618815731441371e-05
-2.7968287124466788e-05
-1.8847079309232027e-05
-8.830020597686673e-06
2.07515671217186e-06
1.3858471807062269e-05
2.650769781783277e-05
4.000836972596314e-05
5.4343797745691274e-05
6.949508619729778e-05
8.544115787389462e-05
0.000102158783890776
0.00011962261899301102
0.00013780524228353345
0.00015667720332052503
0.0001762070735194599
0.00019636150278176467
0.00021710528125876274
0.00023840140614631302
0.0002602111533925385
0.0002824941541881149
0.00030520847609592013
0.0003283107086644072
0.0003517560533568821
0.00037549841761701946
0.0003994905128794098
0.0004236839563227641
0.00044802937615267435
0.000472476520190421
0.0004969743675345032
0.0005214712430521209
0.000545914934448957
0.0005702528116572509
0.0005944319482743393
0.0006183992447766418
0.000642101553227432
0.0006654858031907525
0.0006884991285585097
0.0007110889949930496
0.0007332033276835707
0.0007547906391113862
0.0007758001565164625
0.0007961819487557765
0.000815887052242888
0.0008348675956577148
0.0008530769231158444
0.0008704697154877757
0.0008870021095603766
0.0009026318147353934
0.0009173182269632444
0.0009310225396144149
0.0009437078509956555
0.0009553392682237705
0.0009658840071761521
0.0009753114882442618
0.000983593427624083
0.0009907039238860205
0.0009966195395759564
0.0010013193776089778
0.001004785152227836
0.0010070012543093249
0.001007954810813522
0.0010076357381831969
0.001006036789513575
0.0010031535953261177
0.0009989846977939215
0.000993531578280781
0.000986798678070844
0.0009787934121811002
0.0009695261761646212
0.000959010345828511
0.0009472622698068778
0.0009343012549457731
0.0009201495444738829
0.0009048322889498671
0.0008883775099944352
0.0008708160568326022
0.000852181555689026
0.000832510352096763
0.0008118414461972755
0.0007902164211269252
0.0007676793646025578
0.0007442767838359545
0.0007200575139240185
0.000695072619878339
0.0006693752924744069
0.0006430207381169727
0.0006160660629340582
0.00058857015132762
0.0005605935392240692
0.0005321982822825077
0.0005034478193327532
0.0004744068313288793
0.00044514109611708654
0.0004157173393292025
0.00038620308172496875
0.0003566664833173944
0.00032717618462599156
0.0002978011454123607
0.0002686104812616013
0.00023967329838117283
0.00021105852699618006
0.00018283475372656694
0.0001550700533373435
0.00012783182025772087
0.00010118660026890337
7.519992276317275e-05
4.993613397897161e-05
2.5458231617677023e-05
1.8277012478996626e-06
-2.0895645097742517e-05
-4.265382773025193e-05
-6.339085511596734e-05
-8.305287629582619e-05
-0.00010158832952039628
-0.00011894808671459941
-0.00013508559339275896
-0.0001499570036522
-0.0001635213098822479
-0.00017574046683495616
-0.00018657950971432593
-0.00019600666595209938
-0.0002039934603504127
-0.00021051481328464156
-0.00021554913167366898
-0.00021907839243948582
-0.00022108821819351537
-0.0002215679449032558
-0.00022051068130977502
-0.00021791335988419303
-0.00021377677912953736
-0.00020810563705322448
-0.00020090855565482483
-0.00019219809629373048
-0.00018199076582176357
-0.0001703070133866187
-0.00015717121783330565
-0.00014261166565233987
-0.00012666051944531959
-0.00010935377690068278
-9.073122029475174e-05
-7.083635655567094e-05
-4.971634795040207e-05
-2.7421933477558883e-05
-4.007341071483214e-06
2.046980925455666e-05
4.594861117565508e-05
7.236498656050469e-05
9.965180851995295e-05
0.00012773903278254914
0.00015655383715932505
0.0001860207688390447
0.00021606189923455463
0.00024659698608080845
0.0002775436424655288
0.000308817512454557
0.00034033245295558986
0.0003720007214463534
0.0004037331691764015
0.00043543943943553384
0.00046702817046659367
0.0004984072025859022
0.0005294837890611174
0.0005601648102836402
0.0005903569907611477
0.0006199671184451915
0.0006489022658992642
0.0006770700128042925
0.0007043786692910857
0.000730737499583114
0.0007560569454278505
0.000780248848791034
0.0008032266732855106
0.000824905723804776
0.0008452033638311017
0.000864039229889056
0.0008813354426174228
0.0008970168139359897
0.0009110110497883033
0.0009232489479474674
0.0009336645903791903
0.0009421955296646967
0.0009487829689957584
0.0009533719352648727
0.000955911444785709
0.0009563546611920897
0.0009546590450781502
0.0009507864949577919
0.000944703479138133
0.0009363811581192969
0.0009257954971516125
0.000912927368600942
0.0008977626437935616
0.0008802922740336026
0.0008605123605085048
0.0008384242128212826
0.0008140343959124867
0.0007873547651595886
0.0007584024894670423
0.0007272000621864873
0.0006937752997332209
0.0006581613277924542
0.0006203965550364916
0.000580524634302215
0.0005385944112066655
0.000494659860207321
0.00044878000814266143
0.000401018845317686
0.0003514452242283641
0.0003001327460481459
0.00024715963502892267
0.00019260860099786918
0.000136566690160501
7.912512444895206e-05
2.0379129682784757e-05
-3.957224716240483e-05
-0.00010062633125579453
-0.00016267702343184432
-0.00022561501355431284
-0.0002893280033219022
-0.00035370093808857864
-0.0004186162472473282
-0.000483954092702729
-0.0005495926249350781
-0.0006154082461373137
-0.0006812758798853131
-0.0007470692467826769
-0.0008126611455026271
-0.0008779237386324672
-0.000942728842709962
-0.0010069482218262257
-0.0010704538841562559
-0.0011331183807660242
-0.0011948151060343665
-0.00125541859901848
-0.0013148048450839682
-0.0013728515771139088
-0.0014294385756064762
-0.00148444796696724
-0.001537764519300344
-0.0015892759350024652
-0.0016388731394646682
-0.0016864505651900624
-0.0017319064306395736
-0.0017751430131240989
-0.0018160669150688634
-0.0018545893229848854
-0.001890626258493198
-0.0019240988207596388
-0.0019549334197118576
-0.0019830619994254096
-0.002008422251082663
-0.0020309578149264097
-0.0020506184706498144
-0.0020673603156853783
-0.002081145930878086
-0.0020919445330516246
-0.002099732114001665
-0.0021044915654764595
-0.002106212789732479
-0.002104892795281464
-0.0021005357774748603
-0.0020931531836024084
-0.0020827637622132353
-0.00206939359640039
-0.0020530761208231237
-0.0020338521222753444
-0.002011769723643546
-0.0019868843511328628
-0.0019592586846759836
-0.0019289625914760545
-0.0018960730426714981
-0.0018606740131479511
-0.0018228563645597351
-0.0017827177116609251
-0.0017403622720836582
-0.001695900699738779
-0.001649449902051621
-0.001601132841282783
-0.001551078320220966
-0.001499420752571556
-0.0014462999184008292
-0.0013918607050315468
-0.0013362528338206928
-0.0012796305732846727
-0.0012221524390709656
-0.0011639808813080719
-0.0011052819598976187
-0.001046225008343395
-0.0009869822867420227
-0.0009277286245886955
-0.000868641054079061
-0.0008098984346145035
-0.0007516810692430946
-0.0006941703137920067
-0.0006375481794691973
-0.00058199692973283
-0.0005276986722457611
-0.00047483494674982013
-0.0004235863097102796
-0.00037413191659479257
-0.00032664910266334704
-0.00028131296315607495
-0.00023829593377433557
-0.0001977673723571741
-0.0001598931426599866
-0.00012483520114516875
-9.275118769537814e-05
-6.37940211590704e-05
-3.811150063499506e-05
-1.5845913397367434e-05
2.86634964341674e-06
1.7895170058570752e-05
2.9117068722047688e-05
3.6415562472622945e-05
3.9681509769239565e-05
3.881344450851136e-05
3.371789719179058e-05
2.4309702649534846e-05
1.0512293552888244e-05
-7.742021033656734e-06
-3.0511792778936197e-05
-5.784618758414564e-05
-8.978475611817197e-05
-0.00012635722202251418
-0.0001675832883868478
-0.00021347246306262043
-0.00026402390334690287
-0.000319226280532271
-0.0003790576647807154
-0.0004434854307405819
-0.0005124661842854504
-0.0005859457107126544
-0.0006638589446970015
-0.0007461299622522152
-0.0008326719949087164
-0.000923387466271854
-0.001018168051079407
-0.0011168947568315265
-0.0012194380280200214
-0.001325657872937411
-0.0014354040129993882
-0.0015485160544673566
-0.0016648236824107843
-0.001784146876702106
-0.0019062961497901645
-0.0020310728059515877
-0.0021582692216732943
-0.002287669146773565
-0.0024190480258238574
-0.0025521733393889722
-0.002686804964559335
-0.002822695554206065
-0.0029595909343475254
-0.0030972305189748265
-0.0032353477416439034
-0.003373670503102974
-0.0035119216341866636
-0.0036498193731720916
-0.0037870778567574014
-0.0039234076237902515
-0.0040585161308421625
-0.004192108278694865
-0.004323886948776683
-0.004453553548560772
-0.0045808085649126015
-0.004705352124351826
-0.0048268845591730326
-0.004945106978351661
-0.005059721842145182
-0.005170433539285221
-0.005276948965644771
-0.0053789781032545754
-0.005476234598535537
-0.0055684363386086415
-0.005655306024541135
-0.005736571740386985
-0.005811967516881426
-0.005881233888653524
-0.005944118443826931
-0.006000376364887878
-0.0060497709597103775
-0.006092074181641973
-0.006127067137569038
-0.006154540582898489
-0.006174295402412861
-0.006186143075978088
-0.006189906128107835
-0.006185418560414735
-0.00617252626600776
-0.006151087424925495
-0.006120972879727957
-0.00608206649040403
-0.006034265467788258
-0.005977480684718734
-0.005911636964207985
-0.005836673343940159
-0.005752543316451157
-0.0056592150443926376
-0.005556671550327179
-0.005444910880548868
-0.005323946242472205
-0.005193806115181803
-0.005054534332785877
-0.004906190140268136
-0.004748848221584886
-0.004582598699807287
-0.004407547109162239
-0.004223814338879433
-0.00403153654880681
-0.0038308650568110733
-0.0036219661980351494
-0.003405021156139226
-0.0031802257667070126
-0.002947790293053511
-0.0027079391747250915
-0.0024609107490366567
-0.002206956946044194
-0.0019463429574039502
-0.0016793468796216196
-0.0014062593322462557
-0.0011273830516140603
-0.0008430324607964553
-0.0005535332164551372
-0.00025922173335366666
3.955531267922154e-05
0.00034244150249529746
0.0006490712111995554
0.0009590701646271466
0.0012720560137623623
0.0015876389261000876
0.001905422192914594
0.00222500285136685
0.002545972320350049
0.002867917048943462
0.003190419176317422
0.0035130572019071915
0.003835406664650542
0.004157040830063372
0.004477531383909697
0.00479644913120636
0.00511336469928976
0.005427849243661015
0.005739475155317677
0.006047816768274297
0.006352451065971099
0.006652958385269143
0.006948923116732377
0.007239934399901335
0.007525586812270447
0.007805481050690095
0.008079224603927052
0.008346432415131187
0.008606727532973637
0.008859741750240804
0.009105116228691033
0.00934250210900437
0.00957156110468314
0.009791966078789504
0.010003401602437378
0.010205564493989574
0.010398164337946015
0.01058092398254662
0.010753580015151528
0.010915883214502728
0.011067598979014022
0.01120850773028104
0.011338405291049328
0.011457103236926355
0.011564429221172689
0.011660227271957903
0.011744358061519024
0.011816699146712083
0.011877145180501163
0.011925608093984661
0.01196201724861385
0.011986319558315263
0.011998479581285727
0.011998479581285727
0.011986319558315263
0.01196201724861385
0.011925608093984661
0.011877145180501163
0.011816699146712083
0.011744358061519024
0.011660227271957903
0.011564429221172689
0.011457103236926355
0.011338405291049328
0.01120850773028104
0.011067598979014022
0.010915883214502728
0.010753580015151528
0.01058092398254662
0.010398164337946015
0.010205564493989574
0.010003401602437378
0.009791966078789504
0.00957156110468314
0.00934250210900437
0.009105116228691033
0.008859741750240804
0.008606727532973637
0.008346432415131187
0.008079224603927052
0.007805481050690095
0.007525586812270447
0.007239934399901335
0.006948923116732377
0.006652958385269143
0.006352451065971099
0.006047816768274297
0.00573947515531768
0.005427849243661015
0.00511336469928976
0.00479644913120636
0.004477531383909697
0.004157040830063372
0.003835406664650542
0.0035130572019071915
0.003190419176317422
0.002867917048943462
0.002545972320350049
0.00222500285136685
0.001905422192914594
0.0015876389261000876
0.0012720560137623623
0.0009590701646271466
0.0006490712111995554
0.00034244150249529746
3.955531267922154e-05
-0.00025922173335366666
-0.0005535332164551372
-0.0008430324607964553
-0.0011273830516140603
-0.0014062593322462557
-0.0016793468796216196
-0.0019463429574039502
-0.002206956946044194
-0.0024609107490366567
-0.0027079391747250915
-0.002947790293053511
-0.0031802257667070126
-0.003405021156139226
-0.0036219661980351494
-0.0038308650568110733
-0.00403153654880681
-0.004223814338879433
-0.004407547109162239
-0.004582598699807292
-0.004748848221584886
-0.004906190140268136
-0.005054534332785877
-0.005193806115181803
-0.005323946242472205
-0.005444910880548868
-0.005556671550327179
-0.0056592150443926376
-0.005752543316451157
-0.005836673343940159
-0.005911636964207985
-0.005977480684718734
-0.006034265467788258
-0.00608206649040403
-0.006120972879727957
-0.006151087424925495
-0.00617252626600776
-0.006185418560414735
-0.006189906128107835
-0.006186143075978088
-0.006174295402412861
-0.006154540582898489
-0.006127067137569038
-0.006092074181641973
-0.006049770959710382
-0.006000376364887878
-0.005944118443826931
-0.005881233888653524
-0.005811967516881429
-0.005736571740386985
-0.005655306024541135
-0.0055684363386086415
-0.005476234598535537
-0.0053789781032545754
-0.005276948965644771
-0.005170433539285221
-0.005059721842145182
-0.004945106978351661
-0.0048268845591730326
-0.004705352124351826
-0.0045808085649126015
-0.004453553548560772
-0.004323886948776683
-0.004192108278694865
-0.0040585161308421625
-0.0039234076237902515
-0.0037870778567574014
-0.0036498193731720916
-0.0035119216341866636
-0.003373670503102974
-0.0032353477416439034
-0.0030972305189748265
-0.0029595909343475254
-0.002822695554206065
-0.002686804964559335
-0.0025521733393889722
-0.0024190480258238574
-0.002287669146773565
-0.0021582692216732943
-0.0020310728059515877
-0.0019062961497901645
-0.001784146876702106
-0.0016648236824107843
-0.0015485160544673566
-0.0014354040129993882
-0.001325657872937411
-0.0012194380280200214
-0.0011168947568315265
-0.001018168051079407
-0.000923387466271854
-0.0008326719949087164
-0.0007461299622522152
-0.0006638589446970015
-0.0005859457107126544
-0.0005124661842854504
-0.00044348543074058234
-0.0003790576647807154
-0.000319226280532271
-0.00026402390334690287
-0.00021347246306262043
-0.0001675832883868478
-0.00012635722202251418
-8.978475611817197e-05
-5.784618758414564e-05
-3.0511792778936197e-05
-7.742021033656734e-06
1.0512293552888244e-05
2.4309702649534846e-05
3.371789719179058e-05
3.881344450851139e-05
3.9681509769239565e-05
3.6415562472622945e-05
2.9117068722047688e-05
1.7895170058570752e-05
2.86634964341674e-06
-1.5845913397367434e-05
-3.811150063499506e-05
-6.37940211590704e-05
-9.275118769537814e-05
-0.00012483520114516875
-0.0001598931426599866
-0.0001977673723571741
-0.00023829593377433557
-0.00028131296315607495
-0.00032664910266334704
-0.00037413191659479257
-0.0004235863097102796
-0.00047483494674982013
-0.0005276986722457611
-0.00058199692973283
-0.0006375481794691973
-0.0006941703137920067
-0.0007516810692430946
-0.0008098984346145035
-0.000868641054079061
-0.0009277286245886955
-0.0009869822867420227
-0.001046225008343395
-0.0011052819598976187
-0.0011639808813080719
-0.0012221524390709656
-0.0012796305732846727
-0.0013362528338206928
-0.0013918607050315468
-0.0014462999184008292
-0.001499420752571556
-0.001551078320220966
-0.001601132841282783
-0.001649449902051621
-0.001695900699738779
-0.0017403622720836582
-0.0017827177116609251
-0.0018228563645597351
-0.0018606740131479511
-0.0018960730426714981
-0.0019289625914760545
-0.0019592586846759836
-0.0019868843511328628
-0.002011769723643546
-0.0020338521222753444
-0.0020530761208231237
-0.00206939359640039
-0.0020827637622132353
-0.0020931531836024084
-0.0021005357774748603
-0.002104892795281464
-0.002106212789732479
-0.0021044915654764595
-0.002099732114001665
-0.0020919445330516246
-0.002081145930878086
-0.00206736031568538
-0.0020506184706498144
-0.0020309578149264097
-0.0020084222510826613
-0.0019830619994254096
-0.0019549334197118576
-0.0019240988207596388
-0.001890626258493198
-0.0018545893229848854
-0.0018160669150688634
-0.0017751430131240989
-0.0017319064306395736
-0.0016864505651900624
-0.0016388731394646682
-0.0015892759350024637
-0.001537764519300344
-0.00148444796696724
-0.0014294385756064762
-0.0013728515771139088
-0.0013148048450839682
-0.00125541859901848
-0.0011948151060343665
-0.0011331183807660242
-0.0010704538841562559
-0.0010069482218262257
-0.000942728842709962
-0.0008779237386324672
-0.0008126611455026271
-0.0007470692467826765
-0.0006812758798853131
-0.0006154082461373137
-0.0005495926249350781
-0.000483954092702729
-0.0004186162472473282
-0.00035370093808857864
-0.0002893280033219022
-0.00022561501355431284
-0.00016267702343184432
-0.00010062633125579453
-3.957224716240483e-05
2.0379129682784757e-05
7.912512444895206e-05
0.000136566690160501
0.00019260860099786918
0.00024715963502892267
0.0003001327460481459
0.0003514452242283641
0.000401018845317686
0.00044878000814266143
0.000494659860207321
0.0005385944112066652
0.000580524634302215
0.0006203965550364916
0.0006581613277924542
0.0006937752997332209
0.0007272000621864873
0.0007584024894670423
0.0007873547651595886
0.0008140343959124872
0.0008384242128212826
0.0008605123605085048
0.0008802922740336026
0.0008977626437935616
0.000912927368600942
0.0009257954971516125
0.0009363811581192969
0.000944703479138133
0.0009507864949577919
0.0009546590450781502
0.0009563546611920897
0.000955911444785709
0.0009533719352648727
0.0009487829689957579
0.0009421955296646967
0.0009336645903791903
0.0009232489479474674
0.0009110110497883037
0.0008970168139359897
0.0008813354426174228
0.000864039229889056
0.0008452033638311022
0.000824905723804776
0.0008032266732855106
0.000780248848791034
0.0007560569454278505
0.000730737499583114
0.0007043786692910857
0.0006770700128042925
0.0006489022658992642
0.0006199671184451915
0.0005903569907611477
0.0005601648102836402
0.0005294837890611174
0.0004984072025859022
0.00046702817046659394
0.00043543943943553384
0.0004037331691764015
0.0003720007214463532
0.00034033245295559
0.000308817512454557
0.0002775436424655288
0.00024659698608080845
0.00021606189923455463
0.0001860207688390447
0.00015655383715932505
0.00012773903278254914
9.965180851995295e-05
7.236498656050469e-05
4.594861117565507e-05
2.046980925455666e-05
-4.007341071483214e-06
-2.7421933477558883e-05
-4.971634795040208e-05
-7.083635655567094e-05
-9.073122029475174e-05
-0.00010935377690068271
-0.00012666051944531959
-0.00014261166565233987
-0.00015717121783330565
-0.0001703070133866187
-0.00018199076582176357
-0.00019219809629373048
-0.00020090855565482475
-0.00020810563705322448
-0.00021377677912953736
-0.00021791335988419303
-0.00022051068130977497
-0.0002215679449032559
-0.00022108821819351537
-0.00021907839243948582
-0.00021554913167366898
-0.00021051481328464156
-0.0002039934603504127
-0.00019600666595209938
-0.00018657950971432598
-0.00017574046683495616
-0.0001635213098822479
-0.0001499570036522
-0.000135085593392759
-0.00011894808671459941
-0.00010158832952039628
-8.305287629582619e-05
-6.339085511596734e-05
-4.265382773025193e-05
-2.0895645097742517e-05
1.8277012478996626e-06
2.5458231617677023e-05
4.993613397897161e-05
7.519992276317275e-05
0.00010118660026890337
0.00012783182025772087
0.0001550700533373435
0.00018283475372656702
0.00021105852699618006
0.00023967329838117283
0.00026861048126160123
0.0002978011454123607
0.00032717618462599156
0.0003566664833173944
0.00038620308172496875
0.0004157173393292025
0.00044514109611708654
0.0004744068313288793
0.0005034478193327532
0.0005321982822825077
0.0005605935392240692
0.00058857015132762
0.0006160660629340582
0.0006430207381169727
0.0006693752924744069
0.0006950726198783393
0.0007200575139240185
0.0007442767838359545
0.0007676793646025575
0.0007902164211269252
0.0008118414461972755
0.000832510352096763
0.000852181555689026
0.0008708160568326022
0.0008883775099944352
0.0009048322889498671
0.0009201495444738829
0.0009343012549457731
0.0009472622698068778
0.0009590103458285106
0.0009695261761646217
0.0009787934121811002
0.000986798678070844
0.0009935315782807807
0.0009989846977939215
0.0010031535953261177
0.0010060367895135744
0.0010076357381831969
0.001007954810813522
0.0010070012543093249
0.001004785152227836
0.0010013193776089782
0.0009966195395759564
0.0009907039238860205
0.0009835934276240833
0.0009753114882442618
0.0009658840071761521
0.0009553392682237702
0.0009437078509956559
0.0009310225396144149
0.0009173182269632444
0.0009026318147353934
0.0008870021095603768
0.0008704697154877757
0.0008530769231158444
0.0008348675956577151
0.000815887052242888
0.0007961819487557765
0.0007758001565164625
0.0007547906391113862
0.0007332033276835707
0.0007110889949930496
0.0006884991285585097
0.0006654858031907525
0.000642101553227432
0.0006183992447766416
0.0005944319482743393
0.0005702528116572509
0.000545914934448957
0.0005214712430521207
0.0004969743675345032
0.000472476520190421
0.00044802937615267435
0.0004236839563227641
0.0003994905128794098
0.00037549841761701946
0.0003517560533568821
0.0003283107086644074
0.00030520847609592013
0.0002824941541881149
0.0002602111533925385
0.00023840140614631302
0.00021710528125876274
0.00019636150278176467
0.0001762070735194599
0.00015667720332052503
0.00013780524228353345
0.00011962261899301096
0.000102158783890776
8.544115787389462e-05
6.949508619729778e-05
5.434379774569127e-05
4.000836972596314e-05
2.650769781783277e-05
1.3858471807062269e-05
2.07515671217186e-06
-8.830020597686673e-06
-1.8847079309232027e-05
-2.7968287124466788e-05
-3.618815731441371e-05
-4.350344042121463e-05
-4.991311067504304e-05
-5.541834720442386e-05
-6.002251013040516e-05
-6.373111164656591e-05
-6.655178219803026e-05
-6.849423188349205e-05
-6.95702072146832e-05
-6.979344337774796e-05
-6.917961215057831e-05
-6.774626563930276e-05
-6.551277600579253e-05
-6.250027136622876e-05
-5.8731568048457824e-05
-5.423109940301543e-05
-4.9024841369341565e-05
-4.3140235004775836e-05
-3.660610618948671e-05
-2.9452582725433362e-05
-2.1711009051881246e-05
-1.3413858803815868e-05
-4.594645442847368e-06
4.7121688071263184e-06
1.4471265485153837e-05
2.464656364351465e-05
3.520131458628663e-05
4.6098197359108214e-05
5.729941475326028e-05
6.87667895880314e-05
8.046186103669193e-05
9.234598076333299e-05
0.00010438040864031294
0.00011652640781906122
0.00012874533893053537
0.00014099875319567554
0.00015324848423074302
0.00016545673833748308
0.0001775861830735117
0.00018960003390431152
0.00020146213874456888
0.00021313706020338965
0.00022459015535510052
0.00023578765286489628
0.0002466967273064969
0.00025728557051719534
0.00026752345984421325
0.0002773808231451038
0.0002868293004139834
0.0002958418019147069
0.00030439256271159163
0.0003124571934979937
0.0003200127276329025
0.00032703766430568774
0.00033351200775924475
0.00033941730251194166
0.00034473666452901884
0.00034945480830435175
0.0003535580698237408
0.0003570344253911658
0.00035987350630963585
0.00036206660941840184
0.00036360670349834583
0.00036448843156729703
0.00036470810909679897
0.00036426371819149323
0.00036315489778171694
0.00036138292988915807
0.0003589507220344109
0.000355862785864046
0.00035212521208330497
0.00034774564178874145
0.0003427332343030395
0.00033709863162183673
0.0003308539195896364
0.0003240125859287967
0.0003165894752521333
0.00030860074119584197
0.00030006379581522876
0.0002909972563911075
0.00028142088979971427
0.00027135555460353034
0.00026082314102454364
0.0002498465089651813
0.00023844942424539918
0.00022665649322725718
0.00021449309600066058
0.0002019853183059167
0.00018915988237021105
0.00017604407683617047
0.0001626656859612666
0.00014905291826697209
0.0001352343348162941
0.00012123877729759027
0.00010709529609142655
9.28330784956649e-05
7.848137728197761e-05
6.406943975460655e-05
4.962643747938362e-05
3.5181396847860686e-05
2.0763130637850734e-05
6.400170727758815e-06
-7.879297882171358e-06
-2.2047501593177144e-05
-3.607714113226236e-05
-4.9941452739079335e-05
-6.361426748257097e-05
-7.707006858030995e-05
-9.028404659955663e-05
-0.00010323215242533695
-0.00011589114788737492
-0.00012823865394443826
-0.000140253196331576
-0.00015191424858280835
-0.00016320227234907384
-0.0001740987549385921
-0.00018458624401430118
-0.00019464837939056729
-0.00020426992187904213
-0.00021343677914121702
-0.00022213602851295955
-0.00023035593677407033
-0.00023808597684362218
-0.0002453168413895784
-0.00025204045334884206
-0.0002582499733615179
-0.0002639398041306824
-0.00026910559172640865
-0.0002737442238601032
-0.0002778538251624029
-0.00028143374950492035
-0.00028448456941299977
-0.0002870080626233428
-0.0002890071958468596
-0.00029048610580339747
-0.0002914500776010586
-0.0002919055205386634
-0.00029185994141548403
-0.0002913219154377108
-0.0002903010548161573
-0.000288807975154495
-0.0002868542597317767
-0.00028445242178720486
-0.00028161586491897827
-0.0002783588417126114
-0.0002746964107173747
-0.0002706443918924262
-0.00026621932064680294
-0.00026143840059970116
-0.0002563194551894084
-0.0002508808782608502
-0.0002451415837629621
-0.00023912095468803048
-0.00023283879138572604
-0.00022631525938481245
-0.00021957083685542387
-0.0002126262618444101
-0.0002055024794155066
-0.0001982205888250458
-0.00019080179086254902
-0.00018326733548388154
-0.00017563846986266848
-0.0001679363869834144
-0.00016018217489721152
-0.00015239676675810884
-0.000144600891755107
-0.00013681502705142212
-0.00012905935083905003
-0.00012135369661285148
-0.00011371750876433033
-0.00010616979959102243
-9.872910781296003e-05
-9.14134586830445e-05
-8.424032577334926e-05
-7.722659451441793e-05
-7.038852755950374e-05
-6.374173204048163e-05
-5.7301128776792194e-05
-5.108092349333793e-05
-4.509458009771576e-05
-3.935479606155605e-05
-3.3873479945083824e-05
-2.866173109829348e-05
-2.3729821566430778e-05
-1.9087180221679176e-05
-1.4742379137262366e-05
-1.0703122214391575e-05
-6.97623606684072e-06
-3.5676631622339765e-06
-4.824572135796867e-07
2.2752191909754484e-06
4.702094737611447e-06
6.7957873383013445e-06
8.554799912307829e-06
9.978514030820228e-06
1.1067181462844692e-05
1.1821913665262884e-05
1.2244669264672888e-05
1.2338239583113254e-05
1.2106232264120577e-05
1.1553053059708455e-05
1.0683885842814901e-05
9.504670913519908e-06
8.022081670877754e-06
6.24349972553979e-06
4.176988531452035e-06
1.8312656177886288e-06
-7.843264950628061e-07
-3.659850609244039e-06
-6.784806304503047e-06
-1.0148162444278266e-05
-1.3738390640796843e-05
-1.7543499585738705e-05
-2.15510701518587e-05
-2.5748291169996688e-05
-3.0121995785249273e-05
-3.4658698295607745e-05
-3.934463137621087e-05
-4.4165783592380715e-05
-4.910793710494148e-05
-5.4156705471836135e-05
-5.929757145082829e-05
-6.451592470910592e-05
-6.97970993467941e-05
-7.512641114288216e-05
-8.048919443368928e-05
-8.587083853591843e-05
-9.125682362837752e-05
-9.663275600876224e-05
-0.00010198440264432861
-0.00010729772493792058
-0.00011255891163365584
-0.00011775441078949831
-0.0001228709607471178
-0.00012789562003265572
-0.00013281579612546012
-0.00013761927303532993
-0.00014229423763249016
-0.00014682930467821152
-0.0001512135405078578
-0.0001554364853220319
-0.00015948817404547232
-0.0001633591557174194
-0.00016704051138122185
-0.00017052387044512666
-0.00017380142549030901
-0.00017686594550641338
-0.00017971078753901192
-0.00018232990673760276
-0.0001847178647968925
-0.00018686983678825613
-0.0001887816163823647
-0.0001904496194680064
-0.0001918708861761353
-0.00019304308132208996
-0.0001939644932827983
-0.00019463403132952725
-0.00019505122144043545
-0.0001952162006207343
-0.00019512970976175395
-0.00019479308507353276
-0.00019420824812878702
-0.0001933776945592036
-0.00019230448144795154
-0.00019099221346511778
-0.00018944502779543403
-0.00018766757791016406
-0.00018566501623737142
-0.00018344297578696202
-0.00018100755078891584
-0.00017836527640496615
-0.0001755231075756454
-0.00017248839706612037
-0.00016926887277554385
-0.00016587261437579545
-0.00016230802934642178
-0.0001585838284733789
-0.0001547090008797544
-0.00015069278865706146
-0.00014654466116593656
-0.00014227428907510485
-0.0001378915182073768
-0.00013340634326111
-0.0001288288814751302
-0.00012416934630443414
-0.0001194380211732178
-0.00011464523337077836
-0.00010980132815474184
-0.00010491664312476363
-0.00010000148292844019
-9.50660943596017e-05
-9.012064190743328e-05
-8.517518381306606e-05
-8.023964868828272e-05
-7.532381274894003e-05
-7.04372777134837e-05
-6.558944941467064e-05
-6.078951717018888e-05
-5.604643395540057e-05
-5.136889741886809e-05
-4.6765331778660525e-05
-4.224387063475873e-05
-3.781234073007266e-05
-3.347824668979867e-05
-2.924875676594083e-05
-2.5130689610953718e-05
-2.1130502101500262e-05
-1.7254278230395484e-05
-1.3507719081818526e-05
-9.896133901921785e-06
-6.424432274000307e-06
-3.097117404413543e-06
8.171947746008351e-08
3.108403604893287e-06
5.979680047614721e-06
8.692715979119106e-06
1.1245101845623985e-05
1.3634851447567844e-05
1.5860400947210126e-05
1.792060681850419e-05
1.9814742757960213e-05
2.1542495577659057e-05
2.3103960103967865e-05
2.4499633107777403e-05
2.573040629428772e-05
2.679755838244537e-05
2.7702746306135574e-05
2.844799557110605e-05
2.9035689803372465e-05
2.9468559526510742e-05
2.974967020677778e-05
2.9882409606422314e-05
2.9870474486840193e-05
2.971785670440193e-05
2.9428828742822977e-05
2.9007928726865014e-05
2.8459944962946227e-05
2.77899000528968e-05
2.7003034627626567e-05
2.6104790747877177e-05
2.5100795019496e-05
2.3996841470822714e-05
2.2798874239789625e-05
2.1512970118238e-05
2.0145321000710074e-05
1.8702216284637923e-05
1.719002526836517e-05
1.5615179592856735e-05
1.398415577225146e-05
1.2303457857587695e-05
1.0579600277131355e-05
8.819090895690893e-06
7.0284143342027755e-06
5.21401558963223e-06
3.3822839939461376e-06
1.539537549498345e-06
-3.0799232328789576e-07
-2.1541755916276897e-06
-3.99299793677538e-06
-5.818574570109841e-06
-7.625163509664302e-06
-9.40717828964838e-06
-1.1159200077392094e-05
-1.2875989174023432e-05
-1.4552495877157128e-05
-1.6183870685827074e-05
-1.7765473829918945e-05
-1.929288410837599e-05
-2.076190702249233e-05
-2.2168582192676035e-05
-2.350919004910477e-05
-2.4780257788776003e-05
-2.5978564593487597e-05
-2.710114610534526e-05
-2.814529815839985e-05
-2.910857976704049e-05
-2.9988815373725195e-05
-3.078409636059331e-05
-3.149278183139935e-05
-3.2113498672076325e-05
-3.2645140900061485e-05
-3.308686831427681e-05
-3.343810445938193e-05
-3.369853391956248e-05
-3.386809895872126e-05
-3.394699552545516e-05
-3.393566864267179e-05
-3.383480720307597e-05
-3.364533819307102e-05
-3.3368420368854766e-05
-3.3005437409638444e-05
-3.255799057399116e-05
-3.202789088629477e-05
-3.1417150881199496e-05
-3.072797593477654e-05
-2.9962755211794575e-05
-2.912405225917778e-05
-2.821459527625054e-05
-2.723726709282621e-05
-2.6195094886563856e-05
-2.5091239671287273e-05
-2.3928985588149453e-05
-2.2711729031611968e-05
-2.1442967642222936e-05
-2.012628919808801e-05
-1.8765360436766287e-05
-1.736391583906558e-05
-1.592574640587836e-05
-1.4454688458784226e-05
-1.2954612494642929e-05
-1.1429412123839568e-05
-9.882993121185745e-06
-8.319262617775267e-06
-6.742118461294879e-06
-5.155438771450617e-06
-3.5630717162471724e-06
-1.9688255338903713e-06
-3.7645882405576033e-07
1.2103288688212984e-06
2.7879061586955577e-06
4.35271858715025e-06
5.9012970395724415e-06
7.430265790378528e-06
8.936350160674227e-06
1.0416383773059313e-05
1.1867315389613238e-05
1.3286215320468293e-05
1.467028139174613e-05
1.601684446302264e-05
1.732337348589169e-05
